digraph Tree {
node [shape=box, style="filled, rounded", color="black", fontname="helvetica"] ;
edge [fontname="helvetica"] ;
0 [label="age <= 30.5\ngini = 0.778\nsamples = 18\nvalue = [3, 3, 3, 6, 3]\nclass = Drama", fillcolor="#d8d7fa"] ;
1 [label="gender <= 0.5\ngini = 0.75\nsamples = 12\nvalue = [3, 3, 3, 0, 3]\nclass = Action", fillcolor="#ffffff"] ;
0 -> 1 [labeldistance=2.5, labelangle=45, headlabel="True"] ;
2 [label="age <= 25.5\ngini = 0.5\nsamples = 6\nvalue = [0, 3, 3, 0, 0]\nclass = Comedy", fillcolor="#ffffff"] ;
1 -> 2 ;
3 [label="gini = 0.0\nsamples = 3\nvalue = [0, 3, 0, 0, 0]\nclass = Comedy", fillcolor="#7be539"] ;
2 -> 3 ;
4 [label="gini = 0.0\nsamples = 3\nvalue = [0, 0, 3, 0, 0]\nclass = Documentary", fillcolor="#39e5c5"] ;
2 -> 4 ;
5 [label="age <= 25.5\ngini = 0.5\nsamples = 6\nvalue = [3, 0, 0, 0, 3]\nclass = Action", fillcolor="#ffffff"] ;
1 -> 5 ;
6 [label="gini = 0.0\nsamples = 3\nvalue = [3, 0, 0, 0, 0]\nclass = Action", fillcolor="#e58139"] ;
5 -> 6 ;
7 [label="gini = 0.0\nsamples = 3\nvalue = [0, 0, 0, 0, 3]\nclass = Sci-Fi", fillcolor="#e539c0"] ;
5 -> 7 ;
8 [label="gini = 0.0\nsamples = 6\nvalue = [0, 0, 0, 6, 0]\nclass = Drama", fillcolor="#3c39e5"] ;
0 -> 8 [labeldistance=2.5, labelangle=-45, headlabel="False"] ;
}